{"bias0": [-0.09648547832787402], "linear": [[1.117018434585989], [0.4622145676806726], [0.4323328065152413], [0.0331167669867302], [0.06318027002468243], [-0.21530281197181497], [-0.13606846517070337], [0.033409556602297996], [-0.1468136833392485], [0.0677429253413998], [0.2249496289662701], [-0.020419087593423802], [0.14677747587357623], [0.05036293154299008], [-0.08889815730785355], [0.08821004072756496], [-0.13022430978881788], [-0.023504215007890784], [0.07969303555259297], [0.07010594761322599], [0.29041155877046465]], "weight0": [[0.08336370837254176], [-0.19092266457376433], [-0.19825453841233018], [-0.005518972358920613], [-0.026239646867891552], [0.10491157090691668], [0.06356001813390637], [-0.011065764109665144], [0.06758702934296489], [-0.026906574754104084], [-0.10007966264622918], [0.009772596035858255], [-0.06929014639911155], [-0.02441638265037097], [0.04555921142775895], [-0.04408119311066868], [0.06465654632813261], [0.01584589670721373], [-0.02801728240008393], [-0.03580943553130313], [-0.12762159131129538]], "weight1": [[9.548564312117275]], "bias1": [-4.545631770047352]}