{"bias0": [-0.32828315001520564], "linear": [[0.3199473652552953], [0.06655373723394334], [0.0837625072313258], [0.022044254026812406], [0.01111589950676427], [-0.00547673551459901], [-0.02858296495216659], [0.04948024433238627], [-0.009033117667374704], [-0.06345362870369596], [0.08847497878808222], [0.007739608196864245], [0.009949676215941318], [0.006015650504431606], [-0.020978961147036877], [-0.008076749430676954], [-0.009817488511512852], [0.029708734654442567], [0.08864605101949428], [0.008976078331941603], [0.07518030276308128]], "weight0": [[-0.7339752301943719], [-0.1661647965561569], [-0.22632305685778595], [-0.04727049678276849], [-0.04616546825647893], [0.007761006328419853], [0.09020413919181718], [-0.13178176263350352], [0.010231641036990334], [0.18815281173574033], [-0.2417575852558941], [-0.014600981992960506], [-0.037572131858078735], [-0.020537183930074598], [0.05501494525777301], [0.012935370400246662], [0.03311210348394506], [-0.08825719222690427], [-0.2272884301432584], [-0.028168244978147003], [-0.202776657258243]], "weight1": [[1.8146278239499039]], "bias1": [-0.7564975529383664]}