{"bias0": [0.7311734357106355], "linear": [[0.9786135719682387], [-0.050416034622024396], [0.02453407064017474], [0.00779957106451082], [0.005496969810695351], [0.005754636269514339], [0.0018804986171980418], [-0.007067180515102078], [0.010815497247120635], [0.008549059843357444], [-0.004596048427709097], [0.003329358306283217], [-0.014835375851235393], [0.00970358711189366], [-0.011614000617383144], [-0.0034849577150199438], [-0.0019799417330254817], [0.011956443653619996], [-0.016902321866886748], [-0.014891060133229177], [-0.0009695813157157146]], "weight0": [[0.21956964416591285], [0.07129761051988663], [-0.27489531331429146], [-0.17087678540289958], [-0.09480180544644615], [-0.1090675783717652], [-0.05367600849928145], [0.027510243716967617], [-0.11357268034184152], [-0.08279966906979164], [0.028592866729867647], [-0.03434777514353842], [0.10707033777687272], [-0.09804001396033113], [0.11413733358609475], [0.024912134683024754], [0.007607948366735536], [-0.12402074776573357], [0.14871556480143544], [0.12081283325639419], [-0.0028170412058120893]], "weight1": [[0.5292976604673336]], "bias1": [-0.3510901244419805]}