{"bias0": [-0.22101868771290142], "linear": [[0.9841847648858064], [-0.006758560907631703], [-0.03614786936663322], [-0.0032439900870834355], [0.004058683178802532], [0.014152205051914448], [-0.019928062201928786], [0.012341714386541542], [-0.01411984885531718], [0.015276514915148023], [-0.01365103733833496], [0.012644297831419385], [-0.003243235334184481], [0.004537868785073546], [0.0019443974548536591], [0.012648634863725415], [0.0008498867960964292], [0.0017177978315333388], [-0.008846971270506966], [0.0010168265167834684], [-0.004872046743997174]], "weight0": [[1.28510299172457], [-0.30854829096528036], [0.5436983203551499], [0.03371273313686913], [-0.021296555332889586], [-0.2923164544926197], [0.3301398795039427], [-0.22306614565232527], [0.1979932289377101], [-0.3316415358920566], [0.24491688469773001], [-0.25858294354295186], [0.02430446073262385], [-0.013556568368387338], [-0.06247701949648873], [-0.21974747462842298], [-0.018880891280145622], [-0.006775207015779734], [0.12056031364072108], [-0.023957375521466522], [-0.031381093484317564]], "weight1": [[0.3752352729931129]], "bias1": [-0.17647168552867348]}