{"bias0": [[-0.09001152713529897]], "linear": [[0.763727061900275], [0.5063176646808274], [0.13603060819675156], [0.08524190621003697], [0.06606737710575047], [0.09466294669766392], [0.1019302699155865], [0.005866294485003611], [0.009381931939239028], [-0.03379796677137684], [-0.020856603227890142], [0.017020954282240083], [0.08418708998206637], [0.07120832326506524], [0.06497397594492323], [0.007190560167092383], [0.11070628158681095], [-0.014647045194604639], [0.08871582319068891], [0.13906222968395426], [-0.01438082081000648]], "weight0": [[0.08448902573695288], [-0.547285531328897], [-0.22358752027619663], [-0.060356134674174854], [-0.06314359706086348], [-0.0926023030507304], [-0.1387919945167024], [0.047806943926057666], [-0.007068233223156907], [0.08881052560664053], [0.0539842330261395], [-0.022208404818132254], [-0.1263753295304665], [-0.1204552113755849], [-0.1040689062360185], [-0.006162110856193495], [-0.19085460032927248], [0.04949599123743193], [-0.1526617756869789], [-0.2322589825702648], [0.06641152421849267]], "weight1": [[2.5092873866893717]], "bias1": [-1.1958233556620195]}