{"bias1": [-4.205012562129549], "bias0": [[-0.11669258586386794]], "weight0": [[0.1204936846604948], [-0.18414465801972743], [-0.0038870091228641285], [-0.07947209589107668], [-0.08577699290230288], [-0.040563505759274636], [-0.018357570973043035], [0.038264666244660746], [-0.022654813119664514], [0.00376744005000631], [-0.021293091499397534], [-0.003553281510977677], [-0.11225882002166436], [-0.009609515621195625], [-0.05533632094792284], [-0.03551266875636693], [-0.06810487339321121], [0.009020587852154021], [-0.0821429164177426], [-0.029399190921525396], [0.06583383124208159]], "weight1": [[8.924588248059276]], "linear": [[-0.35270390827080084], [0.541931928406756], [0.010620469774488472], [0.2056121966246237], [0.19309060377980491], [0.10796617336883625], [0.057180177040449226], [-0.06737595758247447], [0.05533524800466675], [-0.002495724767802233], [0.0441920939414965], [0.006961448997455524], [0.2507706986006324], [0.020007769946538537], [0.11828412616741922], [0.08106667047147201], [0.15286499698318984], [-0.011834265914416952], [0.17531592695313267], [0.06890777733896901], [-0.12831467858884119]]}